-4.74157189938396,0.955031282046478,-0.250238282868248,-1.33957806617462,-3.46900410665635,-4.6115003398609,13.3290031904674|10.0270689257005,-13.2400720876434,-0.480584939568569,-9.4334127859356,-8.25232229356076,2.25992412247589,16.1081570745721|-23.4776903736156,11.0053790342043,-0.274566374960113,5.76506542219157,0.392872733549829,11.2604199378569,15.4160296001618|7.78721626818054,-9.8979427593125,-0.118827849962851,-6.43933943397544,-3.74276541010655,2.21798801311559,6.03347799371203|8.49234182181571,-13.5139876249987,-0.197842168345738,-4.85389832012006,-7.50643113826791,19.233784045378,8.95045624895865
-6.18367197433423,-5.61876449326584,2.36472960932949,-4.51543894510286,3.9971682470531|0.198169804528795,3.32781965682178,-7.03985923830359,1.71875558287108,2.179855937732|-0.737429690642293,1.96474399905441,-4.33711742584101,1.29331633473244,0.242086580108867|-0.0184155332365716,-0.117909828883319,6.00030304019876,0.0523506014100592,-7.89259578762204|-4.84646098717443,-3.55914580045488,1.60433208586139,-2.38935446364532,1.70690970656119
-2.5903787920623,4.99928583910068,3.38843059959001,-5.31166917137364,-1.28246771552832|5.77425664301823,-3.75481589938544,-1.4560978962084,6.8476351519725,4.40193764691613|0.271677123049857,-6.05030656394091,-3.51369530748566,6.8553483863793,0.135128536227519|-2.46447335770022,0.274748481059352,0.293221267842768,2.1654019790458,-1.91506182553569|6.09111210919194,-4.81185921030401,-1.62821345079875,11.2889127375493,5.16043678013534
7.82281048704888,-7.81170585398568,-3.47754532620641,3.42348233293357,-6.88380176997586|-4.12604455940776,1.99536139744881,2.31534125868131,-1.20884437057906,-0.0527457283486661|3.12943421852145,-4.22789304043628,-2.30356141577775,-1.8926210949049,-9.2571584175069|8.34440233363895,-3.50358298458485,-6.41930033081624,1.26548881488499,1.49424503872421|1.79777787841059,-3.62016525895814,-2.96880954484065,-1.75035596651954,-7.57928020675375
-6.65803755765721,-4.64818879104411,-5.78052292334084,6.45801501233251,-4.33406478369533|6.09156587129685,-8.94531388786059,5.41929496270025,-5.67053585775406,4.89035124927728|-3.52959753898367,4.58594519852545,-3.26750012549181,-6.36394556089455,-3.52178263731891
