63.4815319381443,-31.6954536644912,0.0456434390129091,-15.2210330144218,-0.358363305432155,-2.93516007285227,-31.2658611909021|87.9833129646037,-100.424903642839,0.0374559344449134,-43.0576337755811,-4.12820931212866,28.5625649147596,54.1714240809388|-47.0307328895347,-1.78403756167337,0.100245128025256,-5.09834406828449,-3.23109544743204,90.7796467311229,-3.81581945944332|-60.3364679503612,20.3620321173686,-0.051889319585087,26.1185416794663,-8.39170386060587,6.72908866833462,74.9938504168134|-55.7491396385343,17.8853336538099,0.214690276190346,18.3469107239311,-5.14723455423538,34.1718451572489,63.2014142939164
0.199374240336248,-4.62909185035564,9.75983258235092,5.63788867043889,11.5322243090955|3.76004850045929,-12.5640350271319,21.2674045962334,-8.75817730477204,-14.6831172264578|8.5760710899282,-19.374318682252,-5.33860697362679,-0.615064207188673,0.379195469908384|-10.705101070306,-7.85004499335178,10.6948407248664,7.54947234198758,14.4034082154491|5.31339402519192,5.03762223429873,-10.0466934697553,-8.96916015975792,-7.11852999701793
5.75494397344507,-11.0121011422745,-7.21444595973804,10.3528362763656,-18.4401476374543|2.08749410103795,-8.56440183984533,-1.39939084362159,7.25447270374996,-17.9959531618205|10.4627112237337,12.0632154997989,9.61974794121556,5.40177523362891,-4.66434142363382|-8.18189734062508,10.1134207850494,-11.1072807831095,-8.88977790974162,8.3494328676167|9.90566207882697,6.09588718550544,8.23266621130636,2.79185737030904,-7.02604264607062
5.38262413107804,3.85389058329571,-0.303450035800943,-10.0031290185145,3.95748697920246|-3.27041829960655,-2.81715526154509,-7.45524042234678,-0.44192585545929,-5.15843134532656|-2.07454525766628,-2.68437962004028,-5.18973973497876,-2.55967855296862,-2.19288350405485|-3.74263620897277,-5.72076008880714,-0.424042890733908,5.68861566094246,-7.33506231966824|-10.3823880640593,-6.01506948750347,3.61608348745748,-8.06447615752378,4.97872954517001
-3.99790300648022,-2.81757807047951,-4.27661802402853,-2.55785650282385,3.99315701435752|-6.81873899489235,4.4299537438762,2.80743738646222,2.03487866612524,-4.25537680712916|4.72589774133552,-4.41013203257594,-4.17601049484402,-10.4449468025797,-4.69800496271515
